digraph Tree {
node [shape=box, style="filled, rounded", color="black", fontname="helvetica"] ;
edge [fontname="helvetica"] ;
0 [label="sepal length (cm) <= 5.15\ngini = 0.65\nsamples = 91\nvalue = [35, 58, 57]\nclass = versicolor", fillcolor="#fdfffe"] ;
1 [label="petal length (cm) <= 2.5\ngini = 0.12\nsamples = 22\nvalue = [28, 2, 0]\nclass = setosa", fillcolor="#e78a47"] ;
0 -> 1 [labeldistance=2.5, labelangle=45, headlabel="True"] ;
2 [label="gini = 0.0\nsamples = 20\nvalue = [28, 0, 0]\nclass = setosa", fillcolor="#e58139"] ;
1 -> 2 ;
3 [label="gini = 0.0\nsamples = 2\nvalue = [0, 2, 0]\nclass = versicolor", fillcolor="#39e581"] ;
1 -> 3 ;
4 [label="petal length (cm) <= 4.85\ngini = 0.55\nsamples = 69\nvalue = [7, 56, 57]\nclass = virginica", fillcolor="#fdfcff"] ;
0 -> 4 [labeldistance=2.5, labelangle=-45, headlabel="False"] ;
5 [label="petal width (cm) <= 0.7\ngini = 0.25\nsamples = 35\nvalue = [7, 55, 2]\nclass = versicolor", fillcolor="#58e995"] ;
4 -> 5 ;
6 [label="gini = 0.0\nsamples = 4\nvalue = [7, 0, 0]\nclass = setosa", fillcolor="#e58139"] ;
5 -> 6 ;
7 [label="sepal width (cm) <= 2.95\ngini = 0.07\nsamples = 31\nvalue = [0, 55, 2]\nclass = versicolor", fillcolor="#40e686"] ;
5 -> 7 ;
8 [label="gini = 0.0\nsamples = 19\nvalue = [0, 36, 0]\nclass = versicolor", fillcolor="#39e581"] ;
7 -> 8 ;
9 [label="sepal length (cm) <= 5.95\ngini = 0.17\nsamples = 12\nvalue = [0, 19, 2]\nclass = versicolor", fillcolor="#4ee88e"] ;
7 -> 9 ;
10 [label="gini = 0.0\nsamples = 6\nvalue = [0, 11, 0]\nclass = versicolor", fillcolor="#39e581"] ;
9 -> 10 ;
11 [label="petal width (cm) <= 1.65\ngini = 0.32\nsamples = 6\nvalue = [0, 8, 2]\nclass = versicolor", fillcolor="#6aeca0"] ;
9 -> 11 ;
12 [label="gini = 0.0\nsamples = 5\nvalue = [0, 8, 0]\nclass = versicolor", fillcolor="#39e581"] ;
11 -> 12 ;
13 [label="gini = 0.0\nsamples = 1\nvalue = [0, 0, 2]\nclass = virginica", fillcolor="#8139e5"] ;
11 -> 13 ;
14 [label="sepal width (cm) <= 2.75\ngini = 0.04\nsamples = 34\nvalue = [0, 1, 55]\nclass = virginica", fillcolor="#833de5"] ;
4 -> 14 ;
15 [label="petal width (cm) <= 1.7\ngini = 0.14\nsamples = 8\nvalue = [0, 1, 12]\nclass = virginica", fillcolor="#8c49e7"] ;
14 -> 15 ;
16 [label="petal width (cm) <= 1.5\ngini = 0.44\nsamples = 2\nvalue = [0, 1, 2]\nclass = virginica", fillcolor="#c09cf2"] ;
15 -> 16 ;
17 [label="gini = 0.0\nsamples = 1\nvalue = [0, 0, 2]\nclass = virginica", fillcolor="#8139e5"] ;
16 -> 17 ;
18 [label="gini = 0.0\nsamples = 1\nvalue = [0, 1, 0]\nclass = versicolor", fillcolor="#39e581"] ;
16 -> 18 ;
19 [label="gini = 0.0\nsamples = 6\nvalue = [0, 0, 10]\nclass = virginica", fillcolor="#8139e5"] ;
15 -> 19 ;
20 [label="gini = 0.0\nsamples = 26\nvalue = [0, 0, 43]\nclass = virginica", fillcolor="#8139e5"] ;
14 -> 20 ;
}